0.26776436,0.37039077,-0.42879066,0.34148687,-0.37125012,-0.14957924,-0.35746843,0.13733952,-0.06366649,-0.46446142,-0.10224959,0.34836695,0.01654173,0.014255278,-0.121266015,0.082617596,-0.045517754,-0.107353695,-0.40032476,0.13906285,0.5143914,0.20586523,0.09881926,-0.3525569,0.40743884,-0.25355926,-0.44090697,0.24094932,0.114434324,0.36595675,0.4142861,-0.13515446,0.1555469,0.06375101,0.15053599,-0.079293944,-0.5010715,0.5201547,-0.07368563,0.46531793,0.09122381,0.40767017,-0.55616957,0.559445,-0.029336324,-0.28411984,-0.12607871,0.1786325,0.21111593,-0.34742576,0.26979864,0.28307706,-0.09230596,0.12640266,0.18226592,0.15247522,0.11706077,0.028002417,-0.0017477551,-0.14237796,-0.4866339,-0.24434407,0.022831282,0.088816024,0.27152547,0.541625,-0.51464623,0.37801635,0.4969986,0.37428236,0.43566075,0.45536304,-0.5649965,0.2557636,-0.09146436,0.54811805,0.5043707,0.23587233,0.42115894,-0.5766842,0.40428498,-0.16435505,-0.20008458,-0.16246483,0.47654188,0.2887065,-0.4518278,-0.26650858,0.35789564,-0.2935779,-0.19239388,-0.15011685,0.23974143,0.23125717,-0.10700791,-0.06959216,