{-0.036716606,-0.2580284,-0.3304578,0.3088387,0.00045059196,-0.20773764,-0.03979202,-0.29472464,0.2945674,-0.17445305,-0.2660591,-0.096840605,0.18528336,-0.07490629,0.3035475,0.31108457,0.079099014,-0.3286445,-0.3290543,-0.13952263,},
{0.15145521,-0.19411743,-0.1848519,-0.3140047,0.13071913,0.15982784,-0.059201274,-0.031120643,0.3477675,-0.02012356,-0.24069858,-0.26063806,-0.22808601,0.34188685,0.1274841,-0.120793246,-0.24590524,0.13952583,-0.11549105,0.1989649,},
{-0.29664347,0.013560116,-0.028125435,-0.34125465,0.15870526,0.25919983,0.2240536,-0.0005838181,0.07502076,0.19763774,0.13027093,0.26920933,-0.14609219,0.3236631,-0.06964577,0.26809874,-0.16230612,0.3273144,0.057152264,0.2909692,},
{-0.29475364,-0.17401278,-0.18952481,0.25552535,-0.11541451,0.17859162,-0.0619369,-0.2640657,0.153525,0.23928258,-0.33674312,0.1370532,-0.11219567,0.07935379,-0.000842937,-0.020590505,0.22637776,0.028839191,-0.077609666,-0.17324272,},
{0.112089835,-0.08412886,0.18408732,0.31162462,-0.31635863,0.22733453,-0.27635574,-0.07205931,0.23136191,-0.21252143,0.23467197,-0.26936793,0.04291021,-0.23609923,-0.10133953,-0.056539197,0.2286756,0.18655118,-0.2663247,0.24556932,},
{-0.22150385,-0.053976078,-0.12924057,-0.26045698,-0.16176718,0.3426327,-0.010957043,0.22954273,0.31076202,-0.35012558,0.13032931,0.10914175,0.32785156,-0.26103592,-0.24300912,0.25531137,-0.040174503,0.03320038,0.32938707,0.17453359,},
{-0.11635291,-0.29730463,-0.2193231,-0.106504075,0.19906901,0.10519242,0.23162824,0.30941713,0.27603218,-0.036678422,-0.0183708,-0.17686751,0.19048074,-0.3325709,-0.16332704,-0.025564002,0.05935941,-0.23933336,0.12880734,-0.16252883,},
{0.3308633,-0.07980721,-0.104651764,-0.30583933,0.040370315,-0.21989115,0.07979785,-0.016775288,0.1143653,0.22855684,0.13131647,-0.12542047,-0.2367308,-0.14563574,0.2118016,-0.16411819,0.05676291,-0.23074324,0.14579841,0.0330744,},
