{-0.09134352,},
{-0.1020096,},
{-0.025044264,},
{0.027689388,},
{-0.06254936,},
{0.059599396,},
{-0.014130473,},
{0.042965177,},
{-0.09670348,},
{-0.0017184436,},
{-0.03537366,},
{0.021032741,},
{-0.028562754,},
{0.072544135,},
{0.093600154,},
{0.04280747,},
{0.035099946,},
{-0.072167195,},
{-0.09624535,},
{-0.016675537,},
{-0.0022934077,},
{0.09646377,},
{-0.011861764,},
{0.05275716,},
{-0.035543352,},
{0.049140934,},
{-0.09193731,},
{-0.05472636,},
{-0.07241338,},
{-0.033898044,},
{-0.06255228,},
{0.065116346,},
{0.04012895,},
{0.05103582,},
{0.008110817,},
{0.041132502,},
{9.401246e-05,},
{-0.033956237,},
{0.09632137,},
{0.07183554,},
{0.0042194524,},
{-0.078294665,},
{-0.071053706,},
{0.088381626,},
{-0.036422145,},
{-0.07630122,},
{0.0063065365,},
{0.09540661,},
{0.032368768,},
{-0.08951868,},
{0.056937058,},
{0.090996616,},
{0.0004468968,},
{-0.082474805,},
{-0.04985359,},
{0.057787076,},
{-0.07470607,},
{0.07551675,},
{0.061230157,},
{0.0090881465,},
{-0.08589842,},
{0.078050196,},
{0.027633214,},
{-0.05629077,},
{-0.03404189,},
{0.089881726,},
{-0.05141099,},
{0.022145404,},
{0.06790437,},
{-0.060191613,},
{0.04279734,},
{-0.016137451,},
{0.067757614,},
{-0.022216445,},
{0.009096298,},
{-0.05844004,},
{-0.0077913296,},
{-0.033385593,},
{-0.053811226,},
{0.07440582,},
{-0.0418486,},
{0.07038942,},
{-0.09357621,},
{-0.009760044,},
{-0.028579434,},
{0.03375606,},
{-0.045904566,},
{0.077878,},
{-0.06516422,},
{-0.015887924,},
{0.016138788,},
{-0.064638,},
{-0.060238846,},
{0.048475426,},
{0.01688062,},
{-0.0060206056,},
